<?xml version="1.0"?>
<opencv_storage>
<opencv_ml_svm>
  <format>3</format>
  <svmType>C_SVC</svmType>
  <kernel>
    <type>LINEAR</type></kernel>
  <C>1.</C>
  <term_criteria><iterations>100</iterations></term_criteria>
  <var_count>1536</var_count>
  <class_count>2</class_count>
  <class_labels type_id="opencv-matrix">
    <rows>2</rows>
    <cols>1</cols>
    <dt>i</dt>
    <data>
      0 1</data></class_labels>
  <sv_total>1</sv_total>
  <support_vectors>
    <_>
      2.27469038e-002 -2.00584773e-002 -1.28772125e-001 -8.75463113e-002
      1.09481253e-001 -1.60984695e-001 -1.11292735e-001 5.36937416e-002
      -1.35166854e-001 -3.91716689e-001 -1.83792174e-001 9.71149802e-002
      1.01602398e-001 -1.26275316e-001 -2.54950076e-001 -1.10193141e-001
      -8.15096404e-003 7.82724768e-002 -9.97855738e-002 -9.12988856e-002
      3.58058773e-002 3.92784365e-002 2.02275570e-002 2.72413194e-002
      -7.52939656e-002 -8.74980986e-002 -3.88662852e-002 4.04318199e-002
      1.12320013e-001 -2.11082492e-002 -1.34234652e-001 -4.46166955e-002
      3.69947898e-004 7.77391940e-002 -1.12246394e-001 -4.25906964e-002
      -4.66616405e-003 6.91932961e-002 -5.90643361e-002 1.49339261e-002
      2.53973622e-003 2.02701092e-002 -4.44956012e-002 -1.67720113e-003
      1.02245562e-001 -4.61324528e-002 -9.35486630e-002 2.06352472e-002
      -4.97137308e-002 -5.78101464e-002 -1.62446126e-001 3.89252380e-002
      -1.21960945e-001 -1.55216157e-001 -5.49842939e-002 1.18020341e-001
      -7.20222294e-002 -7.40028769e-002 2.93229520e-002 9.23931226e-002
      -3.72419879e-002 -1.16858006e-001 -4.10230039e-003 9.93864164e-002
      -9.86999124e-002 -1.62400767e-001 -2.04014421e-001 7.11301118e-002
      -1.59849748e-001 -4.03854102e-001 -4.34326418e-002 1.35090619e-001
      -2.96851099e-001 -7.99025372e-002 1.45924926e-001 1.21123984e-001
      -1.24120519e-001 -8.57460126e-002 7.82075524e-002 6.88514784e-002
      2.60431394e-002 4.85332794e-002 -5.60901053e-002 3.05882804e-002
      1.32337054e-002 -1.29389942e-001 -3.02680321e-002 6.14520796e-002
      -5.24365343e-002 -5.75501360e-002 5.51282614e-002 5.50737754e-002
      -1.43699115e-003 -3.45529541e-002 -1.41504148e-004 4.33760434e-002
      1.06768996e-001 8.89696628e-002 -8.98732021e-002 -8.12769216e-003
      3.04301083e-002 4.69113551e-002 -7.38569424e-002 3.34494896e-002
      4.46707420e-002 1.54642304e-002 -8.93034711e-002 -2.94740032e-002
      3.69222611e-002 -1.44767398e-002 -7.51970857e-002 -1.21807028e-002
      1.50712624e-001 7.32585564e-002 -8.56852159e-002 -4.79595400e-002
      9.29338783e-002 6.01560697e-002 -9.78416204e-002 6.34377226e-002
      -1.95202511e-002 -1.52325496e-001 -1.14180595e-001
      -1.66088603e-002 8.37251917e-002 -3.95666994e-002 -1.27190620e-001
      -5.04616536e-002 2.89148744e-003 -1.00568190e-001 -6.66135252e-002
      -5.06907254e-002 7.35589163e-003 -2.18152538e-001 1.22020259e-001
      5.14670797e-002 -3.46100628e-002 -9.34116468e-002 3.41090485e-002
      1.04582332e-001 1.23024516e-001 -5.38025536e-002 -2.10708901e-001
      -1.42509177e-001 -1.26297712e-001 2.93725897e-002 -1.09742872e-001
      -8.65658671e-002 -3.62072848e-002 1.17313340e-002 3.32261086e-003
      6.61158040e-002 -2.83679646e-002 1.64383128e-002 3.40911886e-003
      1.02845378e-001 1.22780077e-001 5.14783934e-002 -9.81304273e-002
      -3.76795908e-003 -1.46723703e-001 3.87728587e-002 -8.33743140e-002
      -5.38007878e-002 -5.40865809e-002 1.10413969e-001 -7.55410567e-002
      -4.53744736e-003 5.01293316e-002 3.25004645e-002 -4.84332703e-002
      1.14444764e-002 6.96582645e-002 3.98929939e-002 -6.47237152e-002
      5.62094897e-002 -1.81504086e-001 -9.79164466e-002 -1.75002903e-001
      -4.02315194e-003 -1.20633967e-001 4.69424529e-003 -5.84232807e-002
      8.68308842e-002 -5.77372639e-003 -2.57788971e-002 -4.39330179e-004
      6.32295236e-002 -7.74231926e-002 -7.45480433e-002 2.06438862e-002
      4.62754108e-002 -2.49325603e-001 -3.82235587e-001 -2.77491421e-001
      -2.04247348e-002 -1.55901760e-001 -2.59622753e-001
      -1.02117836e-001 1.10919378e-003 -2.15703383e-001 -7.26895034e-002
      -2.77765524e-002 -3.65965404e-002 -1.64240479e-001
      -4.59544025e-002 -3.15438211e-002 -1.32148266e-001
      -6.43565133e-002 -1.59404632e-002 -6.10623993e-002 3.99831310e-003
      -1.54248327e-002 -9.37526580e-003 -4.63524557e-005 1.55722639e-002
      6.48017460e-003 -8.25740676e-003 8.59807655e-002 3.24971112e-003
      -4.94126454e-002 1.94954127e-003 -2.07618717e-003 1.19417300e-003
      -5.36757940e-003 1.17645852e-001 -4.54722494e-002 2.43907585e-003
      -6.33650878e-003 8.84556249e-002 -6.69982806e-002 -9.43133855e-005
      1.77119538e-001 8.40685517e-002 -3.31000946e-002 2.36182427e-003
      5.05596437e-002 -4.19877470e-002 -3.48366462e-002 5.43498062e-002
      6.69417381e-002 7.43264705e-002 -8.14100448e-003 -8.67128838e-003
      2.52171364e-002 -5.11737466e-002 -8.52626041e-002 6.48312196e-002
      1.02725334e-001 2.17683036e-002 -7.15231225e-002 3.78973708e-002
      7.44858384e-002 6.18557073e-003 -1.25982717e-001 1.16414363e-002
      3.03964883e-001 -7.82794580e-002 -4.97636423e-002 4.28447202e-002
      5.93654886e-002 -1.91020995e-001 2.06645671e-002 -4.01459746e-002
      9.99501869e-002 8.61061215e-002 5.47648743e-002 -7.01598078e-002
      4.50017415e-002 1.19459845e-001 -6.15118183e-002 -3.90740931e-002
      3.10098585e-002 -7.38682821e-002 -2.49373257e-001 -4.40689400e-002
      -6.37503266e-002 4.18115593e-002 -9.72189456e-002 6.10637367e-002
      -5.88330161e-003 4.32896838e-002 -2.51234490e-002 9.30863172e-002
      1.02327682e-001 9.80231538e-002 6.56786710e-002 8.47668126e-002
      -1.18239202e-001 7.52389431e-002 -1.47527590e-001 1.28087951e-002
      -5.92117244e-003 2.36355722e-001 -3.69644500e-002 -1.49008492e-002
      1.50639042e-001 5.37433885e-002 8.89999233e-003 3.50058079e-002
      5.46211526e-002 7.55696893e-002 -4.15852591e-002 1.23877451e-001
      4.73827980e-002 8.03530142e-002 -9.80501324e-002 -3.05290595e-002
      -2.74075009e-002 1.34337991e-001 6.64064586e-002 2.85868570e-002
      1.58101752e-001 -1.69193745e-002 3.46696600e-002 -5.89655116e-002
      -4.76438627e-002 -8.12213644e-002 2.50665303e-002 -3.24360025e-003
      2.01257959e-001 -9.93849933e-002 -1.00495495e-001 8.52275193e-002
      3.66797112e-002 2.31768545e-002 -5.22374511e-002 -7.89452493e-002
      -3.30539346e-001 -2.33374640e-001 -7.04955682e-002
      -1.02351688e-001 -1.48101300e-001 1.49075249e-002 -9.57830325e-002
      -2.38592818e-001 -9.32436436e-003 5.17483540e-002 -1.14459381e-003
      -5.42167155e-003 7.02382252e-002 8.66050720e-002 8.31904262e-002
      -9.84747782e-002 -1.38509974e-001 -1.25244096e-001 1.11103036e-001
      6.60108924e-002 -7.70360557e-003 1.93548407e-002 -2.12578923e-002
      9.41800419e-003 1.85369104e-002 1.31003365e-001 -4.84741144e-002
      3.87680829e-002 8.40542838e-002 1.15529671e-001 -1.99044682e-002
      -4.01962847e-002 1.55660376e-001 -1.81369260e-002 -6.89855963e-002
      8.00989568e-002 3.85379116e-003 -1.05360001e-002 -4.26732190e-002
      1.25403956e-001 1.77018464e-001 6.31557181e-002 -8.70432481e-002
      5.32959104e-002 4.68545593e-002 -1.11309424e-001 -2.52381653e-001
      -5.55737801e-002 1.21596038e-001 -8.98927450e-002 -1.76281616e-001
      -2.10725088e-002 -1.17443809e-002 6.52494058e-002 -1.42969742e-001
      7.51766339e-002 3.43115538e-001 1.61875598e-002 -7.78870657e-002
      1.08727336e-001 6.73881024e-002 4.07564461e-001 9.07787457e-002
      1.78850874e-001 5.90759963e-002 3.53714973e-001 2.81092763e-001
      -6.87184408e-002 -2.20844060e-001 9.28318575e-002 -2.01257848e-004
      -1.61756158e-001 8.28982219e-002 -8.88334215e-002 -1.00510530e-001
      3.93930636e-002 1.91801861e-002 2.55643070e-001 9.33541432e-002
      3.13394725e-001 -4.09168787e-002 1.88105211e-001 1.80822015e-001
      1.66862294e-001 -1.23988330e-001 2.22797751e-001 1.04690202e-001
      1.10592194e-001 -2.07982063e-002 7.16556758e-002 -8.07925090e-002
      -3.58195230e-002 -3.89043391e-002 2.96092600e-001 9.45230648e-002
      -7.79884830e-002 1.22576326e-001 2.30260402e-001 8.17143396e-002
      1.21619374e-001 -4.20306586e-002 1.02809042e-001 8.63798037e-002
      2.12704495e-001 -1.03324994e-001 -9.09990689e-004 -1.83894206e-002
      -2.12422952e-001 -1.93488002e-001 1.11063436e-001 -1.55924018e-002
      -2.06916124e-001 1.98988333e-001 9.82724279e-002 -4.46929373e-002
      -2.40119755e-001 -1.72691569e-001 -4.02774066e-001
      -5.26303537e-002 -7.09764753e-003 2.58164238e-002 -2.29718328e-001
      -5.34946769e-002 6.51926780e-003 -1.00906447e-001 9.35115591e-002
      -3.32277060e-001 1.54816896e-001 -3.48154098e-001 -3.95907229e-003
      -2.69965440e-001 -1.59593403e-001 -4.26684469e-001
      -1.43187016e-001 -2.42035374e-001 -1.50251269e-001
      -2.34018773e-001 -3.25504750e-001 -1.25024065e-001
      -1.63331255e-001 -1.63574755e-001 1.60222780e-002 -1.31256446e-001
      -2.22663015e-001 -3.18408608e-001 -1.16954185e-001
      -2.60479581e-002 6.86981007e-002 -1.98351622e-001 -1.50226086e-001
      1.06633559e-003 1.60385534e-001 -9.84145999e-002 -2.50797439e-002
      -6.10141829e-002 -2.10635915e-001 -7.81554431e-002 8.49040449e-002
      -1.57508135e-001 -4.94495891e-002 -9.00320411e-002
      -2.23664613e-003 5.89533225e-002 1.88644752e-001 -1.66546125e-002
      -1.47411153e-001 -2.24311966e-002 1.77730680e-001 1.31369919e-001
      -7.07935616e-002 -1.26008272e-001 5.67933507e-002 -1.54235348e-001
      1.66810617e-001 -5.73668554e-002 4.10359278e-002 -2.09391639e-001
      1.07067131e-001 -1.62614174e-002 1.91446971e-002 -1.02563016e-001
      -3.75932530e-002 -8.13996941e-002 -2.08713263e-002
      -8.48883484e-003 -1.51563928e-001 -1.60504282e-001
      -9.19989347e-002 8.31470340e-002 -2.40503699e-001 -2.42114887e-001
      -4.95878384e-002 -2.04877570e-001 -2.93118566e-001
      -2.11444005e-001 1.09621612e-002 5.29411016e-003 -1.54588223e-002
      -7.53878057e-002 -9.90838632e-002 -4.09483071e-003
      -5.08806035e-002 -1.40389025e-001 -1.06165625e-001 4.09403928e-002
      -2.91978233e-002 -1.52963310e-001 -7.35577894e-003
      -1.25658467e-001 -5.13403490e-002 -9.85938832e-002 1.05017249e-003
      5.69653660e-002 5.03925905e-002 -5.52140661e-002 -6.29349872e-002
      2.39384752e-002 -4.38982360e-002 -1.41745150e-001 -9.60703865e-002
      -1.82734355e-002 -1.39592374e-002 -2.00717062e-001 9.35060158e-003
      -4.96722423e-002 1.03511503e-002 -8.39521438e-002 -1.29850525e-002
      6.74563348e-002 1.86137315e-002 -4.64011319e-002 -1.99215431e-002
      -5.07029928e-002 -1.20693080e-001 -1.85031340e-001
      -4.38389033e-002 -1.70704246e-001 -2.00600877e-001
      -1.82588756e-001 5.89972213e-002 -1.34805635e-001 -7.40597546e-002
      -6.09362451e-003 5.43042161e-002 -4.17718366e-002 -4.72559221e-002
      5.01994267e-002 2.90729981e-002 -1.38396800e-001 -1.75659865e-001
      -2.26855069e-001 -7.08230808e-002 -2.88491011e-001
      -3.90598506e-001 -1.64580330e-001 1.77331660e-002 -3.01282793e-001
      -6.90268427e-002 5.52690886e-002 1.12989079e-002 -1.25907823e-001
      -2.61093639e-002 1.48056120e-001 -3.75300534e-002 1.49985999e-002
      -2.79414598e-002 -1.29294723e-001 -5.06067015e-002
      -5.63581251e-002 -1.94684058e-001 -1.66387141e-001 2.05249824e-002
      -1.17135160e-001 -5.97760640e-002 -2.32366305e-002 3.43266898e-003
      -2.34454460e-002 1.83093024e-003 2.68515330e-002 -2.97566131e-002
      1.18522435e-001 -1.37160961e-002 -1.50678679e-001 -8.18592459e-002
      9.84280370e-003 -5.55978045e-002 -1.96872547e-001 3.96591285e-003
      -4.68346253e-002 -5.79543551e-003 -1.22669086e-001
      -3.13722491e-002 1.31167714e-002 2.12647151e-002 -4.29106727e-002
      -5.58823422e-002 1.43761352e-001 -4.64098155e-002 -1.45946756e-001
      -9.11832079e-002 7.35458359e-002 -3.65241766e-002 -2.32275680e-001
      -9.50873550e-003 -9.60828066e-002 -1.10860370e-001
      -1.59305096e-001 -3.45531404e-002 2.54805423e-002 1.18180690e-002
      -5.50271496e-002 -7.28535503e-002 -5.21053486e-002
      -2.07607776e-001 -7.64405355e-002 8.41854978e-003 -1.53823355e-002
      -2.65677601e-001 -2.83511430e-002 -4.27233949e-002
      -7.82339051e-002 -1.13091804e-001 -2.75173206e-002 5.63706271e-003
      5.01999445e-002 2.95991637e-002 -1.37965428e-002 -4.93912846e-002
      -8.80721062e-002 -7.14246109e-002 -9.00895298e-002
      -5.17834462e-002 -1.54048763e-002 -4.21479493e-002
      -9.25692767e-002 2.08516829e-002 -3.06168180e-002 1.07238479e-002
      -3.77958342e-002 6.24485388e-002 8.98466036e-002 9.46328193e-002
      -2.36897040e-002 1.20947479e-004 -4.85228747e-002 -7.82009140e-002
      -8.00715759e-002 -4.89826202e-002 -2.08269283e-002 6.35441095e-002
      -1.57757252e-001 3.14131491e-002 1.91642381e-002 6.56571314e-002
      -5.59469946e-002 4.49227318e-002 6.55244812e-002 8.92975554e-002
      5.27738221e-003 4.35013697e-002 -1.18060179e-001 -1.51968747e-001
      -1.49691030e-001 -4.48905863e-003 -1.23064354e-001
      -5.96667714e-002 -1.10380270e-001 6.90967962e-002 -2.41224896e-002
      1.90757830e-002 1.89708099e-002 1.47283852e-001 -3.34457234e-002
      -3.08997859e-003 9.40962732e-002 6.92419261e-002 -2.03975081e-001
      -3.02839309e-001 -1.97497159e-001 -5.75999990e-002
      -1.98181823e-001 -2.15250000e-001 -8.92727524e-002
      -5.67411557e-002 -1.05351917e-001 7.65047148e-002 3.59811038e-002
      1.00779518e-001 -8.07183608e-002 3.41115408e-002 1.03095919e-001
      -1.77186057e-002 -5.73446928e-003 -7.68079385e-002
      -6.87725693e-002 -5.67584485e-003 -3.14067341e-002
      -6.76294640e-002 -8.35703909e-002 2.78541353e-003 -3.09366062e-002
      5.44054434e-002 4.49374653e-002 5.86336926e-002 -2.41695140e-002
      7.11041838e-002 4.81212251e-002 2.44068448e-002 3.37046050e-002
      7.13159889e-003 -6.96546063e-002 -1.35401981e-002 3.24020628e-003
      1.65512727e-003 -1.54369101e-001 2.82370765e-002 3.45311239e-002
      5.31802513e-002 -4.61729802e-002 5.94992898e-002 3.73396128e-002
      2.80126370e-002 1.07769649e-002 4.33493070e-002 4.96981405e-002
      -2.36876700e-002 -5.05208857e-002 2.74784416e-002 2.88843755e-002
      -1.09111644e-001 -1.65571928e-001 1.81421191e-002 -1.16039941e-003
      -8.20119586e-003 -1.02826849e-001 3.47040966e-002 4.05270308e-002
      4.24385220e-002 -1.21991513e-002 3.11481319e-002 4.50120606e-002
      -1.94855422e-001 -3.32015101e-003 -4.41101706e-003
      -3.01443208e-002 -2.34900191e-001 -2.55478937e-002
      -1.20110765e-001 4.55464981e-002 3.59069891e-002 5.56698516e-002
      -1.43005729e-001 -3.34045812e-002 1.19747110e-001 1.01520419e-001
      -4.07912433e-002 -7.24912509e-002 -8.82824659e-002
      -9.51662511e-002 -3.30112875e-002 -2.24714708e-002 1.60873663e-002
      -1.20470390e-001 4.76937629e-002 -5.63668646e-003 5.50541058e-002
      5.78157753e-002 1.21413291e-001 6.34928197e-002 7.74819627e-002
      6.15017824e-002 4.33780663e-002 -7.60085061e-002 -7.85279050e-002
      -7.57582486e-002 4.46964428e-002 4.21924219e-002 1.47512406e-001
      -6.99120015e-002 8.27770308e-002 7.97995999e-002 6.22848980e-002
      3.20564620e-002 1.03495650e-001 2.57873498e-002 9.38452631e-002
      3.82678099e-002 1.20608635e-001 4.06930931e-002 -5.17965108e-002
      -8.28479603e-002 3.24699990e-002 9.55899130e-004 6.18718117e-002
      9.43856686e-002 5.14323339e-002 1.72644839e-001 2.04230584e-002
      8.00580531e-002 1.37021706e-001 -1.83942337e-002 1.82829518e-002
      1.07698657e-001 7.82209560e-002 1.77889377e-001 -9.42697152e-002
      2.01941677e-003 1.75250974e-002 1.34706259e-001 2.17699390e-002
      1.25396296e-001 -1.10393904e-001 6.47051632e-002 -9.18709710e-002
      9.72236022e-002 1.87469363e-001 -1.13474010e-002 8.93434510e-003
      6.62155673e-002 -4.23189141e-002 1.77792702e-002 -1.36756413e-002
      2.93090083e-002 2.94116531e-002 7.74020776e-002 2.55388953e-002
      1.09448530e-001 -4.00944762e-002 8.36984627e-003 -3.66562717e-002
      1.19165882e-001 1.26260802e-001 8.36338848e-003 6.44050166e-002
      7.75063783e-002 7.89217427e-002 -5.14140353e-003 1.47407735e-002
      -6.55581243e-003 3.48697864e-002 4.20575514e-002 4.15895693e-003
      -4.77620922e-002 6.53488338e-002 3.94292101e-002 -4.53305058e-002
      4.36304463e-003 1.03011988e-001 3.62810902e-002 3.82605307e-002
      4.89511639e-002 1.36817858e-001 1.55501924e-002 -5.60274683e-002
      -3.37174907e-002 3.88837345e-002 1.28769856e-002 -2.02844858e-001
      -1.92703664e-001 -2.31231544e-002 4.89820130e-002 -8.66101980e-002
      -8.37157741e-002 5.86987007e-003 -1.57910418e-002 7.35638142e-002
      -1.01912143e-002 8.12636837e-002 -1.82298303e-001 -1.39779761e-001
      4.63350415e-002 7.67176673e-002 -1.55338243e-001 8.60355347e-002
      -8.39940459e-003 5.35844676e-002 1.56378716e-001 1.70830712e-001
      1.13712557e-001 -1.05420873e-001 -2.13275760e-001 1.52829245e-001
      1.69372156e-001 4.65635955e-003 -1.57100111e-001 -7.71946013e-002
      -5.00680767e-002 -5.12536317e-002 -9.66223478e-002 6.09507076e-002
      -3.36734988e-002 1.84211776e-001 2.94392016e-002 7.21192211e-002
      1.94405675e-001 2.07141757e-001 3.99203878e-003 1.23655207e-001
      7.92579651e-002 1.06105953e-001 -5.60412137e-003 -4.73780558e-002
      -2.37431061e-002 7.63226375e-002 -4.69800271e-002 9.22067985e-002
      -2.80325431e-002 9.75298136e-002 1.15925614e-002 4.43285480e-002
      7.17829391e-002 1.89939886e-001 2.47619748e-002 8.16923007e-002
      7.82804713e-002 1.78493217e-001 -9.03957710e-002 1.49750598e-002
      6.47146776e-002 4.64477688e-002 -1.00355804e-001 2.22879890e-002
      4.88372482e-002 -1.28231153e-001 1.07119553e-001 -1.30149899e-002
      6.41696379e-002 4.93994877e-002 -8.32290873e-002 -1.86361179e-001
      7.64452964e-002 6.15473129e-002 1.48906395e-001 1.61648709e-002
      1.93501413e-001 7.13037029e-002 1.45726189e-001 -3.74946408e-002
      1.12060577e-001 -3.68612893e-002 7.00457320e-002 -2.15131402e-001
      3.01553234e-002 6.01814277e-002 -2.18674034e-001 -1.91500962e-001
      8.84196255e-003 2.12139916e-002 -1.13761842e-001 -9.92660299e-002
      8.33243504e-002 -1.63250007e-002 -3.27194221e-002 -5.81604503e-002
      8.89616907e-002 -1.15207538e-001 -5.30179776e-002 -1.55697092e-001
      5.94743788e-002 1.15696728e-001 -1.41768560e-001 -6.04633875e-002
      7.21688643e-002 1.49313226e-001 -1.24905914e-001 -1.00866947e-002
      5.90077341e-002 -4.48480360e-002 -1.42917484e-001 4.72150221e-002
      -4.31208462e-002 -2.36418564e-002 -3.70541811e-002
      -7.88669288e-002 4.45006490e-002 1.09712191e-001 1.60386544e-002
      -9.21069980e-002 2.08246578e-002 1.56951532e-001 -1.16939642e-001
      -1.12153329e-001 1.17315156e-002 1.07987504e-002 -1.57469630e-001
      2.65088677e-002 3.60601358e-002 -7.38442764e-002 2.09584907e-002
      -2.48914976e-002 -8.78302008e-002 -6.59119263e-002
      -2.68464740e-002 -2.61647860e-003 4.93005477e-003 2.23487560e-002
      -1.81693565e-002 4.00686357e-003 -1.07323220e-002 -7.02197198e-004
      1.01609327e-001 -1.58905193e-001 -1.14848264e-001 -1.05010748e-001
      -2.19297081e-001 -3.92496347e-001 -2.13445485e-001
      -3.90366688e-002 3.01476568e-002 -2.78714389e-001 -1.86350137e-001
      -1.47549286e-001 -1.83168016e-002 7.68902451e-002 -2.42718849e-002
      -3.51535417e-002 3.84711847e-002 3.83619517e-002 -5.12874909e-002
      -2.54733413e-002 -1.41510531e-001 -8.74441117e-002
      -1.00131661e-001 -2.08983105e-002 8.83470178e-002 -9.20768827e-002
      -5.98762669e-002 -5.93826398e-002 3.29020396e-002 6.67261779e-002
      -2.20035333e-002 -3.33553925e-002 -2.10299920e-002 3.80250327e-002
      -1.36321917e-001 3.34596187e-002 -8.68547708e-002 3.71345039e-003
      -8.05906579e-002 2.96393083e-003 1.04094066e-001 -3.85503806e-002
      -1.43404882e-002 3.88345532e-002 -4.01098914e-002 4.31944136e-005
      -3.35138850e-002 3.62887606e-002 -1.90766484e-001 -1.31502211e-001
      -8.34537372e-002 1.18727602e-001 -1.46483496e-001 -4.04545404e-002
      1.33759845e-002 7.02168047e-002 -2.81502325e-002 -7.72395879e-002
      9.41299349e-002 1.08834900e-001 -1.12580732e-001 2.76985783e-002
      6.82736002e-003 3.92890461e-002 -2.54596412e-001 -2.53150165e-001
      -3.13491151e-002 1.00763373e-001 -2.48417571e-001 7.44394958e-002
      1.07950181e-001 7.40710497e-002 -4.37763780e-002 9.54397023e-003
      2.13459566e-001 7.19469115e-002 5.06370179e-002 1.29539460e-001
      5.80108874e-002 3.58564369e-002 -3.34841870e-002 -9.40634906e-002
      -5.66983707e-002 7.34471008e-002 -7.88843110e-002 -1.42112812e-002
      1.12828072e-002 5.50708249e-002 4.72020805e-002 -1.11136474e-002
      8.03921372e-002 5.28592244e-002 2.06585944e-001 1.12115785e-001
      -5.70090860e-003 -6.66241115e-003 3.11403964e-002 2.39821672e-002
      -1.03296518e-001 2.71520354e-002 -5.29693477e-002 -1.90333854e-002
      -1.11911289e-001 1.00729952e-003 3.82930934e-002 -3.86375859e-002
      -1.34269418e-002 6.36004703e-003 2.02765092e-001 8.46415982e-002
      -1.87376831e-002 -2.34572198e-002 9.88051668e-002 5.35449386e-002
      -1.45633325e-001 -3.89270335e-002 -8.55453461e-002
      -1.31956413e-001 -1.51862770e-001 -6.63558543e-002 6.83409348e-002
      -1.18638933e-001 -7.59042278e-002 -6.18461035e-002 2.99311168e-002
      -2.89417095e-002 3.90359052e-002 5.39911650e-002 -7.69398361e-003
      -1.48041978e-001 1.78320721e-001 -5.99632598e-002 -1.02638908e-001
      -1.95388630e-001 2.66052652e-002 -4.97005209e-002 7.14418963e-002
      -1.16945148e-001 -1.21835629e-002 -8.90027210e-002
      -7.20257387e-002 3.56132574e-002 -3.65495123e-002 -4.82018571e-003
      -3.04185078e-002 1.80399641e-002 3.96438949e-002 4.09093909e-002
      -5.73136955e-002 -2.56204884e-002 -3.04139741e-002 2.34068092e-002
      8.68529603e-002 1.01801045e-002 1.66590163e-003 1.18265478e-002
      -5.31765707e-002 4.95542586e-002 5.55418571e-003 -1.92887112e-002
      -3.93881425e-002 1.07098877e-001 -9.64651853e-002 2.14230344e-002
      -2.72015072e-002 2.56395675e-002 -3.97205763e-002 1.56821441e-002
      5.60006090e-002 1.92168411e-002 4.39905263e-002 8.82264078e-002
      -1.34362221e-001 2.74070017e-002 8.34406167e-003 -1.65644463e-003
      -1.70171380e-001 1.12214964e-003 -1.59294456e-002 4.49864641e-002
      -4.48942259e-002 2.17682179e-002 2.29881965e-002 5.49340285e-002
      -4.02733460e-002 -5.29444451e-003 1.19464822e-001 9.29475948e-002
      -1.55243292e-001 8.77889339e-003 7.25430772e-002 -3.75964679e-002
      -1.88325539e-001 -9.15013626e-003 4.26241979e-002 -9.37098041e-002
      1.70703605e-002 2.50191301e-001 2.80172117e-002 -2.48574764e-002
      1.37300026e-002 1.53740674e-001 1.03460245e-001 -2.44263876e-002
      1.66501943e-002 1.04399443e-001 1.25729859e-001 6.68737711e-003
      -5.06219529e-002 3.33081782e-002 3.89637575e-002 -1.81717295e-002
      1.35344155e-002 9.18766409e-002 5.75909428e-002 2.84062270e-002
      3.41469608e-002 4.72686589e-002 7.55426213e-002 6.76340535e-002
      9.08049494e-002 8.32526907e-002 3.75965834e-002 -5.79564366e-003
      1.73821591e-003 5.56167178e-002 -6.50580898e-002 -4.17141663e-003
      5.50291780e-003 1.10566840e-002 -4.12080176e-002 2.07943618e-002
      2.04913244e-002 -6.23997301e-002 6.11523762e-002 7.26937652e-002
      1.17305607e-001 7.22139925e-002 3.16875093e-002 3.73912193e-002
      7.21496642e-002 7.45150167e-003 -5.05125299e-002 -2.45506745e-002
      2.60856356e-002 -2.50867903e-002 -4.84129600e-002 -4.48923968e-002
      6.63441420e-002 -5.95266856e-002 3.61980870e-002 1.57660078e-002
      1.52058929e-001 2.58723460e-002 -3.36681195e-002 4.73692305e-002
      7.04818293e-002 2.28213780e-002 7.60233924e-002 -2.22627986e-002
      -1.44862086e-002 -7.80796260e-002 3.07914354e-002 -1.76699623e-001
      -9.64481756e-002 8.60389918e-002 5.40786721e-002 -2.58929245e-002
      -2.14878600e-002 -5.00784209e-003 -9.74449068e-002 1.43729886e-002
      -6.15615398e-003 6.44711554e-002 -7.27815405e-002 7.65023530e-002
      -3.84946354e-002 -3.14507708e-002 5.88906929e-002 8.63544270e-002
      3.60559411e-002 -1.52810374e-002 1.00545019e-001 6.30521849e-002
      -1.04009777e-001 2.60725152e-002 -3.56959552e-002 1.88434981e-002
      -3.34774591e-002 1.22955993e-001 -8.53839293e-002 -1.72193106e-002
      6.54450059e-002 -1.74818747e-003 6.21455954e-003 -4.45547923e-002
      4.74881530e-002 1.80761553e-002 2.86397692e-002 9.59036872e-002
      4.19971980e-002 1.69486463e-001 4.13674377e-002 6.62049651e-002
      -1.23971425e-001 1.33643985e-001 6.92690015e-002 -4.27213162e-002
      2.16737315e-001 -6.17761537e-003 -7.31807062e-003 -3.20534445e-002
      5.26177064e-002 4.73772399e-002 5.04145324e-002 2.93112602e-002
      2.05499083e-001 3.17899406e-001 2.32029527e-001 1.81549981e-001
      7.25339875e-002 3.58834058e-001 1.18350901e-001 -1.63825229e-001
      3.73145759e-001 1.11547165e-001 -2.84528006e-002 6.86394423e-003
      2.99530655e-001 2.07096428e-001 -9.16520879e-003 -1.07575975e-001
      6.81094825e-002 2.20504403e-001 1.99720293e-001 1.12892866e-001
      8.08727965e-002 1.94243327e-001 1.58795848e-001 -1.18573993e-001
      2.10344419e-001 2.59194933e-002 8.42951983e-002 8.72972831e-002
      2.14403138e-001 1.39059192e-002 7.44451806e-002 8.93952772e-002
      1.79381352e-002 1.66724660e-002 6.33173212e-002 4.23480198e-002
      6.62158355e-002 3.84087823e-002 1.69355739e-002 -6.30260538e-003
      1.33095426e-003 -9.62785110e-002 -3.24769951e-002 9.35750306e-002
      6.29565939e-002 -6.81293383e-002 8.98909047e-002 1.33380979e-001
      9.75714922e-002 1.53970637e-003 -5.51566482e-003 5.58103174e-002
      9.13260505e-002 -1.54179158e-002 -1.80630058e-001 -6.21365979e-002
      5.30203953e-002 -6.54989481e-002 -8.08478296e-002 -5.07255606e-002
      -4.80575748e-002 3.94909568e-002 9.36163706e-004 6.29530177e-002
      -8.39723796e-002 3.25994752e-002 -1.89760789e-001 9.52663422e-002
      -9.76412967e-002 3.30513231e-002 -7.42831379e-002 1.88746855e-001
      1.99803486e-001 -1.21841528e-001 -1.13543719e-002 -1.91034347e-001
      -2.48141348e-001 -1.14137784e-001 -1.99814975e-001
      -2.02727988e-001 -1.90138251e-001 -5.45638353e-002
      -2.24789739e-001 -4.01231088e-002 -1.43162817e-001 3.17439772e-002
      -1.28924266e-001 2.86296755e-001 7.58081079e-002 -3.18685956e-002
      8.51962790e-002 1.35294735e-001 -7.17835361e-003 -2.70078797e-002
      1.06199998e-002 3.94548522e-003 -1.21543221e-001 -9.35580283e-002
      -1.40446067e-001 7.41890967e-002 -1.27324373e-001 4.13491689e-002
      -5.79887964e-002 -6.10538423e-002 -3.71029368e-003
      -5.82062006e-002 -2.38754731e-002 6.10752665e-002 5.80442995e-002
      1.95472706e-002 7.42695853e-002 1.30245313e-001 6.19407296e-002
      8.44876096e-002 7.85811692e-002 4.13905270e-002 -2.35826477e-001
      2.04900615e-002 -3.23079638e-002 -2.90115654e-001 1.25253752e-001
      -1.01366930e-001 -1.09870091e-001 -5.11243232e-002 9.58807245e-002
      -1.21614911e-001 -1.47732627e-002 2.88752373e-002 4.08688247e-001
      3.04700851e-001 3.85894090e-001 2.64080942e-001 -1.95819214e-001
      1.03950381e-001 7.57610127e-002 -1.01097882e-001 1.65464267e-001
      1.91326719e-002 -6.17410950e-002 6.72272826e-003 2.35321727e-002
      -4.13380144e-003 -7.92251751e-002 -7.98775256e-002
      -4.70218509e-002 1.11654259e-001 2.58777440e-001 5.26515134e-002
      -1.92272484e-001 1.01915002e-001 1.00582011e-001 -2.26964653e-001
      1.96459845e-001 4.60493863e-002 3.55391670e-003 8.66402239e-002
      6.88784465e-004 -1.41663291e-002 1.07075155e-001 1.06704995e-001
      -1.43931448e-001 -7.39712417e-002 4.30612750e-002 -5.09745479e-002
      -1.04482107e-001 4.30139787e-002 -8.70568529e-002 -2.18279753e-002
      1.36939501e-002 -1.17482893e-001 -3.09512150e-002 5.10056242e-002
      1.27146263e-002 -1.31678551e-001 3.06042675e-002 1.04393072e-001
      -6.63550198e-002 -8.71257558e-002 -1.03190608e-001 1.16179891e-001
      -7.12690726e-002 -8.24035630e-002 -1.20161818e-002
      -5.06489612e-002 6.36734664e-002 -1.18221693e-001 -2.16513053e-001
      -9.71255228e-002 -3.49371508e-002 -9.47733372e-002
      -1.78894043e-001 -1.06755704e-001</_></support_vectors>
  <decision_functions>
    <_>
      <sv_count>1</sv_count>
      <rho>-1.3694101008769701e+000</rho>
      <alpha>
        1.</alpha></_></decision_functions></opencv_ml_svm>
</opencv_storage>
