<?xml version="1.0"?>
<opencv_storage>
<opencv_ml_svm>
  <format>3</format>
  <svmType>C_SVC</svmType>
  <kernel>
    <type>LINEAR</type></kernel>
  <C>1.</C>
  <term_criteria><iterations>100</iterations></term_criteria>
  <var_count>1536</var_count>
  <class_count>2</class_count>
  <class_labels type_id="opencv-matrix">
    <rows>2</rows>
    <cols>1</cols>
    <dt>i</dt>
    <data>
      0 1</data></class_labels>
  <sv_total>1</sv_total>
  <support_vectors>
    <_>
      -2.52921395e-002 -6.94371343e-001 -7.51644015e-001
      -3.27461034e-001 -6.61704838e-002 -8.97107840e-001
      -7.53864706e-001 2.01460317e-001 -5.12559004e-002 -8.50665092e-001
      -3.16798896e-001 -6.22567385e-002 1.70639053e-001 -3.39966953e-001
      -3.28997016e-001 -2.12791115e-001 -8.30687135e-002
      -3.71149153e-001 -5.30540884e-001 -1.53285950e-001
      -1.09262422e-001 -4.57853079e-001 -3.81983191e-001 1.21043392e-001
      -1.75395664e-002 -2.34356120e-001 -1.50135711e-001 1.44476825e-002
      6.56992123e-002 -2.14207411e-001 -2.08971396e-001 -5.63391782e-002
      -6.66704625e-002 -1.34761065e-001 -2.68793702e-001
      -3.66725214e-002 -1.64547086e-001 -1.69238582e-001
      -2.96041727e-001 1.41650690e-002 3.34117822e-002 4.76253293e-002
      -1.66714028e-001 9.27498713e-002 5.68116456e-002 -1.66275993e-001
      -1.07038364e-001 5.50621860e-002 6.52120337e-002 -1.02057397e-001
      -1.66844815e-001 9.85910464e-003 -2.21512109e-001 -2.60205865e-001
      -4.19319898e-001 3.87754962e-002 1.76538944e-001 -5.25565632e-003
      -4.68731150e-002 1.87190369e-001 5.81776947e-002 -2.29632810e-001
      -5.86944334e-002 4.44716141e-002 4.68488596e-002 -1.40102759e-001
      -5.06882928e-002 5.21945879e-002 -4.68800068e-001 -6.99323356e-001
      -5.53806961e-001 3.05209570e-002 2.77338803e-001 -1.62348896e-001
      4.60481420e-002 2.38851115e-001 7.85128176e-002 -2.90713072e-001
      -7.33877271e-002 -6.57722056e-002 5.86551381e-003 -5.54786623e-002
      6.13909122e-003 7.43696615e-002 -2.02820703e-001 -2.17066690e-001
      -3.07709038e-001 5.31761050e-002 1.14039846e-001 -4.90514264e-002
      -4.11250256e-002 1.63271561e-001 2.58571329e-003 -1.94730446e-001
      -9.20244381e-002 -5.73145226e-003 -4.99980673e-002
      -1.64270177e-001 -2.43911609e-001 2.86665559e-002 -1.86233863e-001
      -1.67654544e-001 -2.80763298e-001 9.00859907e-002 8.81184563e-002
      4.34473269e-002 -1.66611850e-001 1.33233920e-001 4.48648371e-002
      -1.77214101e-001 -1.34491548e-001 6.29997477e-002 -1.01323083e-001
      -3.93040061e-001 -4.89258051e-001 -1.25701964e-001
      -1.32061273e-001 -4.49568838e-001 -5.89588761e-001 1.51859835e-001
      -2.16330420e-002 -2.87599683e-001 -3.48784775e-001 6.69121817e-002
      8.55687857e-002 -2.30955526e-001 -2.27428794e-001 -3.08750719e-002
      2.59395331e-001 -4.04655129e-001 -4.58844125e-001 -3.39111626e-001
      2.08683446e-001 -5.98533392e-001 -2.26869911e-001 2.24404544e-001
      4.03598547e-002 -3.95834953e-001 4.90169413e-002 -2.86857877e-002
      1.78420275e-001 9.74725839e-003 -1.54491842e-001 -1.56694248e-001
      1.42201215e-001 -1.99426755e-001 -3.50104183e-001 -1.48601755e-001
      1.05679050e-001 -3.06436867e-001 -4.19671498e-002 2.08732784e-001
      7.65932873e-002 4.36978526e-002 1.62545934e-001 6.55684918e-002
      6.44909292e-002 3.92685533e-002 -5.12065366e-002 6.12048944e-003
      8.79108533e-002 2.69588288e-002 -2.10491672e-001 -2.95943134e-002
      -1.54205244e-002 3.77588719e-002 -9.70467404e-002 4.10930216e-002
      1.63822010e-001 2.39557683e-001 -4.41254340e-002 1.25328273e-001
      6.72882646e-002 1.85776372e-002 1.51676266e-002 8.87572691e-002
      2.16310948e-001 1.28249213e-001 -5.91804795e-002 2.77295541e-002
      -1.41236037e-001 -1.39276125e-002 -2.31232151e-001 9.32115242e-002
      2.88611442e-001 1.81251407e-001 7.79098570e-002 1.90095559e-001
      1.16400979e-001 -4.09272388e-002 4.35777120e-002 5.52898273e-002
      1.84915036e-001 1.10946529e-001 1.30413532e-001 4.96218912e-002
      -4.70053732e-001 -4.97189254e-001 -3.89905512e-001 9.79230553e-002
      3.67094457e-001 -1.02355994e-001 1.70954272e-001 2.59734124e-001
      1.20510571e-001 -1.43057346e-001 -4.81377654e-002 -9.48204920e-002
      9.73630175e-002 5.37605137e-002 1.93906069e-001 1.16725348e-001
      -1.16359286e-001 -2.00182758e-002 -1.30422533e-001 1.70900717e-001
      1.15527980e-001 1.71034783e-001 5.63602373e-002 2.28182331e-001
      5.90102114e-002 4.91693150e-003 3.10515296e-002 3.36598232e-002
      8.38540271e-002 -1.76093541e-002 -1.31205276e-001 5.91760688e-002
      -2.68919934e-002 6.77783266e-002 -7.61865079e-002 1.77935064e-001
      1.20883897e-001 2.46450737e-001 -7.07943812e-002 1.60457596e-001
      4.02015187e-002 -3.66026280e-003 -2.21005883e-002 9.27998424e-002
      9.48400274e-002 -2.30130270e-001 -3.57300758e-001 -1.17017262e-001
      5.00848219e-002 -2.29890451e-001 -3.09195906e-001 2.00043991e-001
      5.10493591e-002 -8.42213407e-002 -1.68050215e-001 1.02246031e-001
      7.34709278e-002 1.21712204e-004 -8.84575918e-002 5.93859237e-003
      4.83927757e-001 -2.18257234e-001 -1.26824468e-001 -3.01339209e-001
      2.02292264e-001 -3.04626487e-002 -1.26520675e-002 1.76889002e-001
      6.30426854e-002 -1.29045378e-002 -1.59844141e-002 5.12219369e-002
      -1.16861418e-001 2.03202605e-001 -1.05251320e-001 -1.04000375e-001
      2.48763576e-001 -1.43388629e-001 -1.68713167e-001 -9.12977904e-002
      1.13323733e-001 -4.02074233e-002 1.46606684e-001 2.40538701e-001
      2.82757599e-002 1.44873708e-001 2.26950511e-001 1.90201283e-001
      -6.73891753e-002 1.24382682e-001 8.43656510e-002 2.78994981e-002
      8.90359059e-002 5.82982674e-002 -1.78345561e-001 -8.62771273e-003
      6.41213059e-002 2.71008939e-001 1.56533837e-001 1.23610675e-001
      1.02653466e-001 4.00227100e-001 1.45215586e-001 1.82168871e-001
      7.15116858e-002 4.81537320e-002 9.48698893e-002 1.50744483e-001
      3.38280976e-001 1.82666421e-001 -1.05591044e-002 1.22978520e-002
      3.11466366e-001 2.75252163e-001 -4.08081375e-002 1.73865676e-001
      2.76255637e-001 2.54276454e-001 6.54008565e-003 9.67978090e-002
      1.40732124e-001 2.91469917e-002 2.62792036e-002 4.33275625e-002
      2.89675534e-001 2.05589071e-001 2.46568352e-001 2.12094840e-002
      2.97835648e-001 -1.62005663e-001 -1.48279339e-001 2.62787908e-001
      2.41691262e-001 -1.86677799e-001 1.38223134e-002 1.13731831e-001
      2.58956514e-002 -1.10352144e-001 -5.05226851e-002 -1.74641669e-001
      1.14037149e-001 1.69083968e-001 4.25774544e-001 3.98701131e-002
      3.87964621e-002 1.27991125e-001 6.21286780e-002 1.69204965e-001
      3.69763263e-002 2.71626383e-001 2.94791460e-002 2.30344787e-001
      1.02791876e-001 1.63129717e-001 9.69740897e-002 6.73885122e-002
      2.87325121e-002 1.30875394e-001 -1.14556596e-001 3.63618843e-002
      4.00206298e-002 2.88713008e-001 1.15603440e-001 1.98960438e-001
      2.45720353e-002 3.93216997e-001 3.46856304e-002 1.84291810e-001
      6.81081489e-002 1.11694090e-001 3.78757976e-002 9.99274477e-002
      1.33879453e-001 -1.68358982e-001 -2.01414689e-001 -9.54985619e-002
      8.53256360e-002 -7.85529539e-002 -1.34223774e-001 1.53525740e-001
      4.48600911e-002 -1.15687229e-001 -1.51391268e-001 8.33249018e-002
      -5.77800460e-002 2.21665390e-002 -4.15463597e-002 5.86210266e-002
      3.45633000e-001 9.91879404e-002 -1.70897663e-001 -3.76954556e-001
      5.20717949e-002 4.16928738e-001 1.86859995e-001 9.97015163e-002
      2.80225933e-001 4.34148073e-001 2.63508648e-001 8.94920155e-002
      -1.55465096e-001 4.03118581e-001 1.58315122e-001 1.27839120e-002
      1.14962593e-001 3.20890993e-002 -2.86760241e-001 2.00774819e-002
      1.92544670e-004 6.13178194e-001 5.58332801e-001 3.40334028e-001
      9.44469944e-002 7.55096197e-001 5.60120702e-001 4.71336961e-001
      1.09617775e-002 3.25726360e-001 1.73826501e-001 1.65471181e-001
      1.02343269e-001 5.83239943e-002 -2.24589989e-001 1.17856763e-001
      5.43219000e-002 2.84456521e-001 3.03539097e-001 1.37427434e-001
      8.68095905e-002 4.96609539e-001 4.30900812e-001 2.23325208e-001
      2.25695714e-001 -2.96388846e-002 1.79794654e-001 2.74530321e-001
      1.76631257e-001 6.20450899e-002 -1.72279570e-002 -5.92601076e-002
      3.10726255e-001 -6.39453083e-002 -4.37127352e-002 -1.00133598e-001
      2.44368449e-001 -6.65622354e-002 -1.27062902e-001 -9.34690535e-002
      1.77660882e-001 -2.28798971e-001 -1.42169492e-002 1.51233181e-001
      -5.17658405e-002 -2.37980083e-001 2.55875349e-001 -5.50297201e-002
      3.05518836e-001 -7.58192658e-001 -9.37040604e-004 -8.44477192e-002
      -1.37919560e-003 -9.24111068e-001 -1.98930979e-001
      -1.41005352e-001 -2.72047549e-001 -4.61733460e-001
      -4.55724820e-002 -1.23479649e-001 -7.91489258e-002
      -6.04349561e-002 3.02794039e-001 -4.13227417e-002 6.60200641e-002
      -2.74595097e-002 -3.10915504e-002 8.48609209e-002 9.35931057e-002
      -1.03267752e-001 -8.85470510e-002 8.23623314e-002 7.19010159e-002
      -3.19365673e-002 1.36490181e-001 6.98159710e-002 -1.24231882e-001
      3.16370539e-002 -1.27442464e-001 3.54069062e-002 -6.11455329e-002
      2.93250829e-001 -6.97170347e-002 2.82693595e-001 -1.43956155e-001
      3.27028126e-001 -1.17237948e-001 1.30561277e-001 5.99280559e-002
      2.36229151e-002 3.43258567e-002 6.44286871e-002 2.01376807e-002
      -1.03180498e-001 -1.22631013e-001 -2.14678854e-001
      -1.21907406e-001 2.48128116e-001 -8.70268941e-002 3.29925418e-001
      -1.67540416e-001 1.16559736e-001 -1.36696726e-001 1.52449816e-001
      -1.94604874e-001 4.73249741e-002 9.36698839e-002 1.37028888e-001
      -1.09701440e-001 -6.69311643e-001 -6.56028986e-001 5.18834554e-002
      -3.11021894e-001 -8.13165188e-001 -6.43032730e-001 1.88493612e-003
      -2.02105388e-001 -7.33581781e-001 -9.49462950e-002
      -1.45447358e-001 2.33362064e-001 -2.34307840e-001 -2.02711433e-001
      -1.49018288e-001 -1.38003573e-001 -3.84873509e-001
      -4.67736453e-001 3.91331762e-002 -2.96963066e-001 -4.01700467e-001
      -3.41282636e-001 -9.15666390e-003 -1.40557408e-001
      -2.13215664e-001 -2.16526575e-002 -6.11446425e-002 1.02591969e-001
      -1.82886019e-001 -1.54568478e-001 -4.72693816e-002
      -1.11646421e-001 -1.83456972e-001 -2.47628853e-001 1.09291207e-002
      -3.07483464e-001 -1.34602368e-001 -2.40527302e-001
      -4.57300544e-002 -7.97889680e-002 5.16281091e-002 -6.08744733e-002
      1.11521762e-002 7.09281340e-002 -1.62373096e-001 -1.03241138e-001
      2.86284685e-002 2.39840872e-003 -1.54453129e-001 -1.82220995e-001
      7.36286491e-002 -3.45316976e-001 -1.89417437e-001 -3.48912746e-001
      -2.22229138e-002 3.22350226e-002 1.34671861e-002 8.78049713e-003
      8.43496323e-002 7.08671883e-002 -2.23513409e-001 -7.21302330e-002
      1.80168953e-002 1.23437704e-003 -2.15848282e-001 -1.00345597e-001
      1.54161781e-001 -5.74240029e-001 -5.41049957e-001 -4.40089792e-001
      -5.19125424e-002 1.07446775e-001 -1.22369178e-001 9.89187285e-002
      8.95091444e-002 8.71481970e-002 -2.90329427e-001 -7.95708001e-002
      -9.86657739e-002 -4.29526344e-002 -1.05948456e-001
      -3.43512744e-002 1.26979917e-001 -3.25709075e-001 -1.36328623e-001
      -2.28534088e-001 -9.95417684e-003 -2.15985626e-002
      -2.06135958e-002 3.25889178e-002 6.23244122e-002 7.62938010e-003
      -1.90472916e-001 -9.86507237e-002 -3.18615660e-002
      -1.01731427e-001 -2.07852617e-001 -2.54218280e-001 7.37834200e-002
      -3.23768318e-001 -1.30983338e-001 -2.10144490e-001 3.48140448e-002
      -2.40127780e-002 5.01244627e-002 -4.33620140e-002 4.93251830e-002
      5.00400327e-002 -1.71968147e-001 -1.24224253e-001 3.68913002e-002
      -1.48391306e-001 -4.02615070e-001 -4.44874257e-001 7.61752874e-002
      -3.28269929e-001 -3.82112920e-001 -4.62355465e-001 1.82862319e-002
      -1.29758641e-001 -2.36320749e-001 -1.07451536e-001
      -2.24961601e-002 1.16100505e-001 -1.86928883e-001 -1.68685108e-001
      -2.32747532e-002 7.19726235e-002 -3.85334551e-001 -3.97501111e-001
      1.47921026e-001 -4.74027544e-002 -4.59065318e-001 -1.87361360e-001
      -4.19760235e-002 -1.28838375e-001 -3.06633294e-001 2.22590059e-001
      -1.61748379e-001 2.14765057e-001 8.70426148e-002 -2.75886171e-002
      -7.39239976e-002 4.58632922e-003 -2.10919231e-001 -3.06101054e-001
      1.39177307e-001 -7.65701905e-002 -2.15775669e-001 -3.11761834e-002
      3.51366475e-002 -6.67647943e-002 1.89599656e-002 2.52640456e-001
      -5.57925776e-002 6.71041608e-002 2.39345785e-002 -1.78763010e-002
      2.52196025e-002 -9.37196519e-003 -5.18380404e-002 -1.75960913e-001
      6.39784783e-002 -1.75382853e-001 5.74506111e-002 -1.24174263e-002
      -1.63839273e-002 -1.39148608e-002 2.01954469e-001 9.73275006e-002
      4.00052778e-002 4.99457084e-002 -1.37022771e-002 1.09192580e-002
      6.71719909e-002 1.19686216e-001 3.80383469e-002 -7.41619021e-002
      1.47064298e-001 -2.56930113e-001 7.27390796e-002 -1.48865014e-001
      5.70181804e-003 1.01699889e-001 1.75843120e-001 1.56536907e-001
      8.46579894e-002 1.06617242e-001 -4.50020060e-002 2.09612530e-002
      3.92585285e-002 1.23515218e-001 2.38741636e-002 8.50051865e-002
      2.41085187e-001 -5.37094414e-001 -2.64485836e-001 -2.12518662e-001
      -4.08785529e-002 1.85053155e-001 2.75460421e-003 2.65557826e-001
      1.10322125e-001 1.10247120e-001 -1.45596191e-001 -5.46723865e-002
      -1.07538052e-001 3.24711539e-002 -8.25066492e-003 1.53723165e-001
      2.22450078e-001 -2.41915658e-001 6.27152771e-002 -3.20312823e-003
      5.08684516e-002 -5.89931458e-002 1.92412555e-001 1.86858639e-001
      9.32428911e-002 2.88602635e-002 -1.70727987e-002 8.22276901e-003
      7.93415215e-003 -1.35721313e-002 -7.57456720e-002 -1.29207700e-001
      1.32572010e-001 -1.78570092e-001 8.95169079e-002 4.08761203e-002
      1.07724465e-001 -3.14415880e-002 2.11333022e-001 8.99406597e-002
      6.53249025e-002 1.70542486e-002 -2.92383227e-002 -1.62805859e-002
      7.57691786e-002 -5.11378385e-002 -2.62552470e-001 -3.11648011e-001
      1.56918719e-001 -1.43514380e-001 -1.43942013e-001 -1.91111505e-001
      2.12049540e-002 -8.58312994e-002 -6.30715191e-002 6.39801919e-002
      -1.16055971e-002 7.58494213e-002 2.61857752e-002 -3.23002525e-002
      3.31282653e-002 1.63877919e-001 -2.17825174e-001 4.59886296e-003
      -9.17757154e-002 -3.81742381e-002 3.11532527e-001 8.68686289e-002
      -5.76166529e-003 -1.79763839e-001 1.92382768e-001 1.25796959e-001
      -1.77664682e-001 -3.63098718e-002 2.55654186e-001 4.29461971e-002
      -4.73700613e-002 3.26246172e-002 -1.47025198e-001 -7.59316385e-002
      6.39522001e-002 -4.21644635e-002 1.93903983e-001 1.32968515e-001
      1.10532641e-001 -1.35623112e-001 1.40067071e-001 2.84728765e-001
      -4.20770748e-003 -5.17480373e-002 9.90692154e-002 7.90894181e-002
      5.81031926e-002 -3.25108282e-002 -2.63650268e-002 -9.72468928e-002
      1.12434529e-001 -3.07186879e-002 3.35884720e-001 1.56330630e-001
      1.09042361e-001 -9.97866765e-002 3.16232979e-001 2.39579052e-001
      4.88072783e-002 2.95083281e-002 2.34444961e-002 7.78422132e-002
      1.35452390e-001 1.80779487e-001 9.31527242e-002 -1.74409023e-003
      1.27979055e-001 1.54741913e-001 3.25069815e-001 1.68566741e-002
      5.96473739e-002 4.06362079e-002 2.46685073e-001 1.66156992e-001
      -5.54609075e-002 1.01952776e-001 1.14386352e-002 2.46086251e-002
      4.41977605e-002 1.70437008e-001 1.17759831e-001 2.29067296e-001
      1.69059992e-001 2.06489608e-001 3.89502347e-002 5.57726063e-002
      6.97606280e-002 6.34556785e-002 -4.13164273e-002 2.36837387e-001
      -4.25285324e-002 -8.41304846e-003 -1.17628418e-001
      -4.33583744e-002 -1.65964827e-001 5.08524328e-002 8.65707770e-002
      3.63102436e-001 1.53914943e-001 -2.55219955e-002 1.74094960e-001
      1.86323240e-001 7.65579790e-002 -1.55595303e-001 2.96741664e-001
      2.45662689e-001 4.92971838e-002 3.21028605e-002 1.05790295e-001
      7.77248442e-002 2.16201469e-002 -7.70644844e-002 2.14527603e-002
      -7.03205541e-002 1.66864067e-001 -8.92134830e-002 2.25367114e-001
      1.74947947e-001 1.91660002e-001 -1.59743786e-001 3.16383958e-001
      1.50118083e-001 7.08443522e-002 1.42833395e-002 8.23077187e-002
      1.72871351e-002 9.06194523e-002 -8.72749016e-002 -2.12546229e-001
      -9.01571438e-002 7.95599222e-002 -1.04225405e-001 3.02465539e-002
      -2.00066734e-002 4.77499440e-002 -1.65040776e-001 -5.04497588e-002
      9.70007386e-003 -7.25306422e-002 -4.36251275e-002 7.32025206e-002
      1.19406311e-002 7.15880096e-002 5.91642745e-002 8.38095099e-002
      1.25676692e-001 -2.58865263e-002 -1.19758904e-001 5.86183608e-001
      2.81462014e-001 7.07334876e-002 -1.46937653e-001 4.69900548e-001
      3.06773633e-001 -8.42109844e-002 -7.89145082e-002 4.66488272e-001
      1.63829267e-001 3.60353440e-002 -1.81334782e-002 2.90970672e-002
      -5.54680675e-002 2.61933446e-001 -7.37302974e-002 6.05678856e-001
      4.97438073e-001 3.60985339e-001 -1.54347688e-001 3.74159306e-001
      4.62019086e-001 1.48029104e-001 -1.22820362e-002 2.94019967e-001
      1.02340661e-001 1.57735229e-001 4.64075506e-002 2.34862100e-002
      -5.46402633e-002 3.46091062e-001 -2.80531365e-002 3.62372607e-001
      3.40186000e-001 1.63394794e-001 -4.59357351e-002 3.08063656e-001
      3.62078249e-001 -1.92329921e-002 1.18795544e-001 -1.98494457e-002
      1.32587999e-001 2.38813609e-001 3.88573036e-002 6.52929321e-002
      1.08817838e-001 1.17258698e-001 1.55829787e-001 1.93336919e-001
      1.25543669e-001 -1.21608675e-001 5.37453629e-002 -3.19416039e-002
      2.89669987e-002 -3.01004529e-001 1.01358391e-001 -1.63057879e-001
      2.66630799e-002 1.91024214e-001 -1.34676263e-001 -1.46643326e-001
      2.84782618e-001 -5.87353557e-002 2.54751503e-001 -2.44521260e-001
      3.52421016e-001 -1.91130668e-001 -1.43623471e-001 -4.18853521e-001
      5.76410256e-002 -3.46950442e-001 -2.47157991e-001 -3.41840804e-001
      -9.28262528e-003 -2.33526863e-002 -8.10352415e-002
      -5.04997857e-002 2.67332226e-001 8.16920176e-002 7.95714185e-003
      6.05811812e-002 2.58028507e-001 1.20930942e-002 -9.27490219e-002
      3.11092790e-002 1.34731740e-001 -1.28158227e-001 -3.68072465e-003
      -3.16559002e-002 1.32506162e-001 6.43273667e-002 -2.16705263e-001
      1.72958709e-002 2.93879583e-002 2.71167576e-001 -1.50250643e-001
      2.72775769e-001 1.10848911e-001 1.60996228e-001 -3.17606241e-001
      2.29758605e-001 9.94627476e-002 -1.05025157e-001 -1.04651498e-002
      2.42491756e-002 3.42867449e-002 1.25696640e-002 -2.21416652e-001
      -2.87316125e-002 7.02819675e-002 7.27135092e-002 -2.25556195e-001
      3.72994065e-001 9.57610831e-002 -2.31700372e-002 -3.00736398e-001
      1.29599646e-001 1.13558389e-001 -2.15008408e-001 -1.74466610e-001
      1.24246247e-001 1.39218986e-001 7.99667537e-002 -9.63201523e-002
      -5.79129577e-001 -5.82719505e-001 -2.59693377e-002
      -1.28090590e-001 -7.56211758e-001 -6.44937456e-001 1.61051288e-001
      -3.09030209e-002 -7.90302157e-001 -1.05691254e-001
      -1.56846166e-001 3.10910493e-001 -3.61905694e-001 -2.34627470e-001
      -2.69564480e-001 -1.26021042e-001 -2.76480556e-001
      -3.64978015e-001 2.88082240e-003 -1.98966622e-001 -3.78454417e-001
      -3.16160113e-001 1.02564909e-001 -2.69082990e-002 -2.20042557e-001
      -2.00365111e-002 -5.72459102e-002 1.28047094e-001 -2.31198892e-001
      -1.31060854e-001 -1.19666018e-001 -1.05343960e-001
      -1.01598948e-001 -1.39362842e-001 -8.40037304e-004
      -2.50302464e-001 -1.63112581e-001 -1.85260728e-001 1.61209665e-002
      2.28341892e-002 3.51019651e-002 -2.35431232e-002 7.28331367e-003
      7.14195371e-002 -1.76098660e-001 -6.59049526e-002 -1.99217219e-002
      2.14324426e-002 -5.00739366e-002 -5.00607900e-002 4.99160737e-002
      -2.75258869e-001 -1.59976244e-001 -2.34525904e-001 3.46413366e-002
      1.47796705e-001 3.56554575e-002 8.27702656e-002 5.81567474e-002
      6.03754222e-002 -2.00535730e-001 -3.02217267e-002 -6.51980788e-002
      -1.11129880e-003 -6.88657388e-002 9.66583341e-002 1.24451473e-001
      -5.17779469e-001 -4.56368715e-001 -2.31508538e-001
      -1.02819712e-003 2.23155960e-001 -2.38299370e-002 2.29209423e-001
      2.25535445e-002 8.43321308e-002 -2.25958332e-001 -4.10736948e-002
      -2.20726162e-001 -4.44657914e-002 -1.89582643e-003 1.34018525e-001
      1.15792237e-001 -2.99300104e-001 -1.26441419e-001 -8.87491405e-002
      4.78318259e-002 7.67450407e-002 2.63511445e-002 1.23840079e-001
      5.40849753e-002 1.68569162e-002 -1.63149580e-001 -5.64464256e-002
      -8.00471529e-002 -9.31951478e-002 -1.28444538e-001
      -1.29248455e-001 6.31650537e-002 -2.85123765e-001 -1.49499163e-001
      -1.19304165e-001 1.04350023e-001 8.43489096e-002 5.85870072e-002
      1.86779331e-002 7.12922141e-002 7.45674521e-002 -1.84479341e-001
      -8.33580047e-002 2.08619563e-003 -1.27918988e-001 -2.96915293e-001
      -3.38508576e-001 1.25267236e-002 -2.11340457e-001 -3.62005562e-001
      -3.99604827e-001 1.24395572e-001 2.79537272e-002 -2.52543479e-001
      -5.68020828e-002 -2.85617542e-002 1.75098717e-001 -2.45396048e-001
      -1.55765042e-001 -9.49453190e-002 7.89421499e-002 -3.28690052e-001
      -4.07382190e-001 2.80819554e-002 1.55357659e-001 -4.06627923e-001
      -3.03989351e-001 1.86244352e-003 1.54212952e-001 -3.91695321e-001
      1.17876910e-001 -2.37761468e-001 3.31589490e-001 -5.19968159e-002
      -8.48361403e-002 -1.98848903e-001 4.95429598e-002 -1.26274064e-001
      -2.44338378e-001 9.57296416e-002 2.13827360e-002 -1.50546879e-001
      -7.90226012e-002 1.13512158e-001 1.35163203e-001 4.12522256e-002
      2.02720001e-001 -4.28986698e-002 1.97252586e-001 -1.84250604e-002
      7.33593386e-003 -2.75562648e-002 4.94013280e-002 5.54980971e-002
      -6.19380251e-002 6.86968192e-002 -1.20076962e-001 4.50280346e-002
      1.10621182e-002 7.96182081e-002 1.44173011e-001 2.27054924e-001
      1.38442606e-001 4.66325134e-002 1.20242462e-001 -4.95422259e-003
      5.85792921e-002 4.23211902e-002 2.21251205e-001 1.99806884e-001
      8.28278363e-002 1.16864718e-001 -1.60592258e-001 1.45639360e-001
      -5.36414199e-002 1.23372570e-001 2.61780292e-001 2.70159870e-001
      1.98940933e-001 4.31675464e-002 1.29343882e-001 1.51934400e-002
      5.30544855e-002 -7.15122893e-002 1.79108381e-001 2.45458722e-001
      3.32535863e-001 1.87918156e-001 -4.67686713e-001 -1.50147397e-002
      5.42796217e-002 5.49708754e-002 2.83669800e-001 3.00474465e-001
      3.49750012e-001 -1.24092028e-002 1.41141862e-001 1.91724077e-002
      -5.54018728e-002 -3.17455769e-001 8.01648200e-002 1.33215964e-001
      3.60009789e-001 2.17491284e-001 -2.18583286e-001 1.54120743e-001
      1.55013412e-001 1.78430229e-001 5.04052788e-002 3.15374106e-001
      2.68879116e-001 1.11931227e-001 7.69245699e-002 5.27960323e-002
      3.63213681e-002 -4.05300073e-002 3.61501761e-002 2.63709091e-002
      -4.95073572e-003 1.62811100e-001 -1.50625080e-001 1.04116254e-001
      9.22150835e-002 2.25161344e-001 1.16145208e-001 2.31102929e-001
      1.55735224e-001 1.21826261e-001 9.37674716e-002 -3.80994417e-002
      1.94759313e-002 6.17305897e-002 -2.22215964e-003 -1.37149811e-001
      -2.46780440e-001 9.92448851e-002 -8.33540224e-003 -9.73662511e-002
      -1.99195653e-001 1.16827533e-001 1.50156111e-001 -6.68454766e-002
      8.34345296e-002 -5.32133169e-002 2.07810357e-001 -2.29524858e-002
      -1.69421285e-002 -2.24360880e-002 1.30272985e-001 -3.08339924e-001
      -1.66130483e-001 -2.83035189e-001 1.01216771e-001 2.48685658e-001
      -2.40591571e-001 -7.58456737e-002 1.92431323e-002 -2.54439916e-002
      -1.04453914e-001 -2.67866492e-001 7.47671202e-002 -1.49610080e-002
      -1.92790311e-002 -1.63807511e-001 3.63095924e-002 -1.18672535e-001
      -3.07682995e-002 8.97871982e-003 5.15346043e-003 1.69711769e-001
      -9.70929340e-002 1.71379045e-001 9.73884612e-002 1.01048917e-001
      1.58343807e-001 4.80802394e-002 8.53895172e-002 5.91396645e-004
      7.62043893e-002 1.35721583e-002 1.22585474e-002 1.09109648e-001
      -2.55238190e-002 1.05783455e-001 1.77214574e-002 2.58341402e-001
      7.36284852e-002 1.50034472e-001 1.48732752e-001 2.98419684e-001
      1.93866819e-001 8.66132453e-002 1.20778576e-001 2.44974028e-002
      8.13224316e-002 1.32881671e-001 3.20752233e-001 3.09480876e-001
      8.84755030e-002 9.90243480e-002 2.72597194e-001 3.72021317e-001
      1.42805511e-002 1.58920839e-001 2.77328193e-001 3.70432973e-001
      7.73663372e-002 -1.11794762e-001 1.17873795e-001 8.35094377e-002
      -1.96853634e-002 -1.49102479e-001 2.60378093e-001 3.85092765e-001
      4.74570006e-001 8.77608582e-002 1.75126567e-001 3.11742753e-001
      2.34997600e-001 6.17977157e-002 1.94774196e-001 3.63428622e-001
      1.37241066e-001 -3.47299129e-001 2.70962622e-002 1.43025666e-001
      -1.52960956e-001 -6.01683438e-001 1.06502540e-001 2.59270579e-001
      5.84197938e-001 7.99156949e-002 -4.18018475e-002 3.37500900e-001
      2.42459267e-001 1.27136976e-001 4.12260331e-002 4.56235647e-001
      2.30625272e-001 2.88808458e-002 7.72585720e-002 2.21728668e-001
      8.59176889e-002 -8.65209699e-002 -3.28903981e-002 1.39646262e-001
      3.07860319e-002 1.53273046e-001 -9.15874764e-002 2.80274659e-001
      1.82390228e-001 3.54924172e-001 2.77796257e-002 3.35438281e-001
      1.44472942e-001 1.73682824e-001 7.29989558e-002 6.97823688e-002
      1.01860970e-001 9.76658762e-002 -6.71160668e-002 -1.24568120e-001
      -1.36906356e-001 -1.50730563e-002 -5.37204929e-003 1.09493412e-001
      -1.54025495e-001 1.43583521e-001 2.27025151e-002 -6.61421865e-002
      -5.65690696e-002 -8.18970129e-002 6.91045001e-002 3.97062581e-003
      3.99764068e-002 2.71665324e-002 -6.65045157e-003 -1.96797326e-001
      -5.82462609e-001 -3.07498872e-001 -5.10920100e-002 1.92553952e-001
      -2.32277960e-001 -2.25772381e-001 1.23891100e-001 8.99027474e-003
      -7.39358068e-002 -3.76371652e-001 2.54782867e-002 -4.74081524e-002
      -8.34126770e-003 -1.60366148e-001 -2.00790074e-002
      -2.58924551e-002 -2.85320193e-001 1.78288832e-001 -6.27939999e-002
      3.37118149e-001 8.23644996e-002 4.06033427e-001 4.83293384e-002
      1.64747238e-001 1.78987250e-001 6.42099455e-002 9.36036780e-002
      3.37465294e-002 2.50253137e-002 4.90400977e-002 5.36128879e-002
      1.27221823e-001 -5.07489331e-002 2.13127360e-001 5.33321127e-002
      3.11026871e-001 1.12107709e-001 2.18252927e-001 1.94624126e-001
      2.18905389e-001 2.44710580e-001 3.38869728e-002 1.84022546e-001
      -3.55534405e-002 1.11978084e-001 1.91628620e-001 1.50568888e-001
      3.50425482e-001 1.28074035e-001 3.04057263e-002 2.87120342e-001
      3.83621067e-001 8.23026299e-002 2.43216120e-002 3.40588450e-001
      1.19653165e-001 -1.20625511e-001 -3.31522048e-001 1.63244218e-001
      -4.47395965e-002 -7.83172175e-002 -1.94720775e-001
      -1.00259155e-001 3.48555058e-001 4.25824106e-001 -1.15912423e-001
      1.10204883e-001 2.24863216e-001 2.75238812e-001 -3.76142621e-001
      -2.57925671e-002 9.81847942e-002 -1.12326533e-001 -8.26847970e-001
      -2.75839329e-001 -1.92074198e-002 -2.46024325e-001
      -8.20057690e-001 -4.43689041e-002 2.04864785e-001 5.59840262e-001
      -3.86387319e-003 -6.37739524e-002 1.91655740e-001 1.56256482e-001
      1.46933068e-002 1.03618845e-001 2.01720178e-001 2.10123826e-002
      -1.39341369e-001 7.11850356e-003 1.50018498e-001 7.26722404e-002
      -1.69335693e-001 -1.78203568e-001 8.26600865e-002 1.99780911e-001
      2.42678896e-001 -1.74569324e-001 1.97195917e-001 6.17360510e-002
      3.53145480e-001 -1.34603053e-001 2.02345878e-001 -1.47029264e-002
      1.06463134e-001 2.85512712e-002 1.93323921e-002 7.82118514e-002
      8.76515433e-002 -2.98446745e-001 -1.13484584e-001 -2.18995541e-001
      -7.96506926e-002 -2.37487391e-001 2.36307815e-001 -9.35760140e-002
      -5.19694574e-002 -2.91257780e-002 -3.30987237e-002
      -7.64162168e-002 -2.54029274e-001 -6.06025308e-002
      -1.32317677e-001 3.96398567e-002 5.64758182e-002</_></support_vectors>
  <decision_functions>
    <_>
      <sv_count>1</sv_count>
      <rho>-9.5863316176691582e-001</rho>
      <alpha>
        1.</alpha></_></decision_functions></opencv_ml_svm>
</opencv_storage>
